{
	"auto_complete":
	{
		"selected_items":
		[
			[
				"ima",
				"imageNames"
			],
			[
				"CAR",
				"CarDetector::LEAVE_OLD_MODEL"
			],
			[
				"O",
				"OVERWRITE_MODEL"
			],
			[
				"over",
				"overwriteModel"
			],
			[
				"load",
				"loadModel"
			],
			[
				"model",
				"modelPath"
			],
			[
				"save",
				"saveModel"
			],
			[
				"file",
				"filenames"
			],
			[
				"testImage_c",
				"testImage_cpu_rgba"
			],
			[
				"tes",
				"testImage_cpu"
			],
			[
				"fil",
				"filenames"
			],
			[
				"string",
				"std::string"
			],
			[
				"rec",
				"rectPosDirs"
			],
			[
				"my",
				"my_image_name"
			],
			[
				"pai",
				"pairNameRect"
			],
			[
				"fou",
				"foundRectsWithNames"
			],
			[
				"sv",
				"svm_binder"
			],
			[
				"car",
				"car_detector"
			],
			[
				"Fea",
				"FeatureDetector::SampleShape"
			],
			[
				"test",
				"testDirName"
			],
			[
				"pos",
				"positiveExsamples"
			],
			[
				"getdete",
				"getDetectedCarRects"
			],
			[
				"log",
				"logInfo"
			],
			[
				"Log",
				"Logger::instance"
			],
			[
				"samp",
				"sampleShape"
			],
			[
				"fea",
				"feature_detector"
			],
			[
				"Ca",
				"CarSampleShape"
			],
			[
				"str",
				"str	str"
			],
			[
				"Car",
				"CarDetector"
			],
			[
				"win",
				"winSize"
			],
			[
				"SID",
				"SIDE_RIGHT"
			],
			[
				"HO",
				"HOGDescriptor"
			],
			[
				"resul",
				"resultWriter"
			],
			[
				"temp",
				"temp_result_writer"
			],
			[
				"tem",
				"temp_result_writer"
			],
			[
				"en",
				"endl"
			],
			[
				"bott",
				"bottomRightY"
			],
			[
				"top",
				"topLeftY"
			],
			[
				"image",
				"imageName"
			],
			[
				"add",
				"addEntry"
			],
			[
				"val",
				"valueVectorSize"
			],
			[
				"_ho",
				"_hogTest"
			],
			[
				"ADD",
				"ADD_LIBRARY"
			],
			[
				"c",
				"c_str"
			],
			[
				"des",
				"descriptorVector"
			],
			[
				"max",
				"maxElem"
			],
			[
				"F",
				"FeatureDetector"
			],
			[
				"svm",
				"svmBinder"
			],
			[
				"svmB",
				"SvmBinder"
			],
			[
				"ma",
				"main	main()"
			],
			[
				"feature",
				"featureVector"
			],
			[
				"FE",
				"FeatureEntity"
			],
			[
				"prob",
				"problemSize"
			],
			[
				"hog",
				"hogsPos"
			],
			[
				"Ho",
				"hogsNeg"
			],
			[
				"_",
				"_validExtensions"
			],
			[
				"some",
				"something"
			],
			[
				"CROP",
				"CROP_DELIMETER"
			],
			[
				"FIL",
				"FILENAME"
			],
			[
				"RA",
				"RAND_H"
			],
			[
				"MA",
				"MAX_ALLOWED_WIDTH"
			],
			[
				"get",
				"getInstance"
			],
			[
				"IM",
				"IMAGE"
			],
			[
				"Image",
				"IMAGE_SIZE"
			]
		]
	},
	"buffers":
	[
		{
			"file": "main.cpp",
			"settings":
			{
				"buffer_size": 2788,
				"line_ending": "Unix"
			}
		},
		{
			"file": "directory_parser.cpp",
			"settings":
			{
				"buffer_size": 1609,
				"line_ending": "Unix"
			}
		},
		{
			"file": "svm.cpp",
			"settings":
			{
				"buffer_size": 64707,
				"line_ending": "Unix"
			}
		},
		{
			"file": "svm_binder.cpp",
			"settings":
			{
				"buffer_size": 10572,
				"line_ending": "Unix"
			}
		},
		{
			"file": "svm_binder.h",
			"settings":
			{
				"buffer_size": 1198,
				"line_ending": "Unix"
			}
		},
		{
			"file": "car_detector.h",
			"settings":
			{
				"buffer_size": 907,
				"line_ending": "Unix"
			}
		},
		{
			"file": "car_detector.cpp",
			"settings":
			{
				"buffer_size": 1622,
				"line_ending": "Unix"
			}
		},
		{
			"file": "temp_result_writer.cpp",
			"settings":
			{
				"buffer_size": 1295,
				"line_ending": "Unix"
			}
		},
		{
			"file": "temp_result_writer.h",
			"settings":
			{
				"buffer_size": 510,
				"line_ending": "Unix"
			}
		},
		{
			"file": "feature_detector.cpp",
			"settings":
			{
				"buffer_size": 3884,
				"line_ending": "Unix"
			}
		},
		{
			"file": "/home/igor/ExternalLibs/opencv-2.4.6.1/modules/gpu/src/cuda/hog.cu",
			"settings":
			{
				"buffer_size": 36248,
				"line_ending": "Unix"
			}
		},
		{
			"file": "feature_detector.h",
			"settings":
			{
				"buffer_size": 1398,
				"line_ending": "Unix"
			}
		},
		{
			"contents": "Searching 123 files for \"setTestHogFromHyperplane\"\n\n~/Work/Thesis/MiscCode/HOGclassifier/bin/train_and_predict:\n    <binary>\n\n/home/igor/Work/Thesis/MiscCode/HOGclassifier/source/car_detector.cpp:\n   39    svmBinder.createDetectionVector();\n   40  \n   41:   _featureDetector->setTestHogFromHyperplane(svmBinder.getDetectionVector());\n   42    _detectedCars = _featureDetector->detectMultiScale(_testSampleNames);\n   43  }\n\n/home/igor/Work/Thesis/MiscCode/HOGclassifier/source/feature_detector.cpp:\n   48  }\n   49  \n   50: void FeatureDetector::setTestHogFromHyperplane(std::vector<float>* hyperplane)\n   51  {\n   52  	_hogTest.setSVMDetector(*hyperplane);\n\n/home/igor/Work/Thesis/MiscCode/HOGclassifier/source/feature_detector.h:\n   30  	void detectFeatures(const std::vector<std::string>& filenames, FeatureEntity which);\n   31  	void setHogFromSvm(std::vector<float>* features);\n   32: 	void setTestHogFromHyperplane(std::vector<float>* hyperplane);\n   33  	std::map<std::string, std::vector<cv::Rect> > detectMultiScale(std::vector<std::string>& images);\n   34  	std::vector<std::vector<float> >* getFeatures(FeatureEntity which);\n\n5 matches across 4 files\n",
			"settings":
			{
				"buffer_size": 1160,
				"line_ending": "Unix",
				"name": "Find Results",
				"scratch": true
			}
		},
		{
			"file": "logger.cpp",
			"settings":
			{
				"buffer_size": 2036,
				"line_ending": "Unix"
			}
		},
		{
			"file": "logger.h",
			"settings":
			{
				"buffer_size": 1185,
				"line_ending": "Unix"
			}
		}
	],
	"build_system": "",
	"command_palette":
	{
		"height": 375.0,
		"selected_items":
		[
			[
				"Snippet: ",
				"Snippet: pair"
			],
			[
				"install",
				"Package Control: Install Package"
			],
			[
				"instal",
				"Package Control: Install Package"
			],
			[
				"remo",
				"Package Control: Remove Package"
			],
			[
				"insta",
				"Package Control: Install Package"
			],
			[
				"in",
				"Package Control: Install Package"
			],
			[
				"isntall",
				"Package Control: Install Package"
			],
			[
				"remove",
				"Package Control: Remove Package"
			],
			[
				"inst",
				"Package Control: Install Package"
			],
			[
				"push",
				"Git: Push"
			],
			[
				"git comm",
				"Git: Commit"
			],
			[
				"git add",
				"Git: Quick Add"
			],
			[
				"git co",
				"Git: Commit"
			],
			[
				"git",
				"Git: Show"
			],
			[
				"git pus",
				"Git: Push"
			],
			[
				"gitstat",
				"Git: Status"
			],
			[
				"ins",
				"Package Control: Install Package"
			]
		],
		"width": 462.0
	},
	"console":
	{
		"height": 139.0,
		"history":
		[
			"import urllib.request,os; pf = 'Package Control.sublime-package'; ipp = sublime.installed_packages_path(); urllib.request.install_opener( urllib.request.build_opener( urllib.request.ProxyHandler()) ); open(os.path.join(ipp, pf), 'wb').write(urllib.request.urlopen( 'http://sublime.wbond.net/' + pf.replace(' ','%20')).read())"
		]
	},
	"distraction_free":
	{
		"menu_visible": true,
		"show_minimap": false,
		"show_open_files": false,
		"show_tabs": false,
		"side_bar_visible": false,
		"status_bar_visible": false
	},
	"file_history":
	[
		"/home/igor/MyProjects/StarDict/ja/lingo/engine/dictionaryindex/reader/DataResolver.java",
		"/home/igor/MyProjects/StarDict/ja/lingo/engine/dictionaryindex/reader/DataSource.java",
		"/home/igor/MyProjects/StarDict/ja/lingo/engine/dictionaryindex/reader/DictionaryIndex.java",
		"/home/igor/MyProjects/StarDict/ja/lingo/engine/dictionaryindex/reader/IDataSource.java",
		"/home/igor/MyProjects/StarDict/ja/lingo/engine/dictionaryindex/reader/IDictionaryIndex.java",
		"/home/igor/MyProjects/StarDict/ja/lingo/engine/dictionaryindex/reader/IIndexSource.java",
		"/home/igor/MyProjects/StarDict/ja/lingo/engine/dictionaryindex/reader/IndexSource.java",
		"/home/igor/MyProjects/StarDict/ja/lingo/engine/dictionaryindex/reader/ITokenReader.java",
		"/home/igor/MyProjects/StarDict/ja/lingo/engine/dictionaryindex/reader/ReaderFormat.java",
		"/home/igor/MyProjects/StarDict/ja/lingo/engine/dictionaryindex/reader/TokenReader.java",
		"/home/igor/MyProjects/StarDict/ja/lingo/engine/reader/Readers.java",
		"/home/igor/MyProjects/StarDict/ja/lingo/engine/reader/BaseParser.java",
		"/home/igor/MyProjects/StarDict/ja/lingo/application/util/articlelist/AArticleListModel.java",
		"/home/igor/MyProjects/StarDict/ja/lingo/application/util/articlelist/ArticleList.java",
		"/home/igor/MyProjects/StarDict/ja/lingo/application/util/articlelist/ArticleListMenu.java",
		"/home/igor/MyProjects/StarDict/ja/lingo/application/util/articlelist/ArticlesListModel.java",
		"/home/igor/MyProjects/StarDict/ja/lingo/application/util/articlelist/IArticleListMenuSupport.java",
		"/home/igor/MyProjects/StarDict/ja/lingo/application/util/articlelist/MutableArticleListModel.java",
		"/home/igor/MyProjects/StarDict/com/xduke/xswing/DataTipCell.java",
		"/home/igor/MyProjects/StarDict/com/xduke/xswing/DataTipComponent.java",
		"/home/igor/MyProjects/StarDict/com/xduke/xswing/DataTipListener.java",
		"/home/igor/MyProjects/StarDict/com/xduke/xswing/DataTipManager.java",
		"/home/igor/MyProjects/StarDict/com/xduke/xswing/DataTipPopup.java",
		"/home/igor/MyProjects/StarDict/com/xduke/xswing/ListDataTipCell.java",
		"/home/igor/MyProjects/StarDict/com/xduke/xswing/ListDataTipListener.java",
		"/home/igor/Work/Thesis/MiscCode/HOGclassifier/pos/degree_0/.model",
		"/home/igor/Downloads/people.tsv",
		"/home/igor/Work/Thesis/MiscCode/RectifyBumblebee/bumblebeeRectify.cpp",
		"/home/igor/Work/Thesis/MiscCode/RectifyBumblebee/bumblebeeRectify.h",
		"/tmp/bash-fc-1382437184",
		"/home/igor/Work/Thesis/MiscCode/HOGclassifier/build/source/CMakeFiles/train_and_predict.dir/CXX.includecache",
		"/home/igor/Work/Thesis/MiscCode/HOGclassifier/build/source/CMakeFiles/temp_result_writer_lib.dir/CXX.includecache",
		"/home/igor/Work/Thesis/MiscCode/HOGclassifier/build/source/CMakeFiles/car_detection_lib.dir/CXX.includecache",
		"/home/igor/Work/Thesis/CarData/DataFromGoogleImages/google.sh",
		"/home/igor/Work/Thesis/MiscCode/HOGclassifier/source/CMakeLists.txt",
		"/home/igor/.config/sublime-text-3/Packages/Default/Default (Linux).sublime-keymap",
		"/home/igor/.config/sublime-text-3/Packages/User/Default (Linux).sublime-keymap",
		"/home/igor/Work/Thesis/MiscCode/HOGclassifier/source/feature_detector.h",
		"/home/igor/Work/Thesis/MiscCode/HOGclassifier/source/main.cpp",
		"/home/igor/Work/Thesis/MiscCode/HOGclassifier/source/temp_result_writer.h",
		"/home/igor/Work/Thesis/MiscCode/HOGclassifier/source/temp_result_writer.cpp",
		"/home/igor/Work/Thesis/MiscCode/HOGclassifier/source/svm_binder.h",
		"/home/igor/Work/Thesis/MiscCode/HOGclassifier/source/svm_binder.cpp",
		"/home/igor/Work/Thesis/MiscCode/HOGclassifier/source/svm.h",
		"/home/igor/Work/Thesis/MiscCode/HOGclassifier/source/svm.cpp",
		"/home/igor/Work/Thesis/MiscCode/HOGclassifier/source/car_detector.h",
		"/home/igor/Work/Thesis/MiscCode/HOGclassifier/source/feature_detector.cpp",
		"/home/igor/Work/Thesis/MiscCode/HOGclassifier/CMakeLists.txt",
		"/home/igor/Work/Thesis/MiscCode/HOGclassifier/source/directory_parser.h",
		"/home/igor/Work/Thesis/MiscCode/HOGclassifier/source/directory_parser.cpp",
		"/home/igor/Work/Thesis/MiscCode/trainHOG/main.cpp",
		"/home/igor/.config/sublime-text-3/Packages/User/pair.sublime-snippet",
		"/home/igor/.config/sublime-text-3/Packages/User/cstr.sublime-snippet",
		"/home/igor/Work/Thesis/CarData/DataFromGoogleImages/getimages.sh",
		"/home/igor/log_24_5_2012_____11_11_47.alog",
		"/home/igor/Work/Thesis/MiscCode/HOGclassifier/build/output_log.dat",
		"/home/igor/.gitconfig",
		"/home/igor/.config/sublime-text-3/Packages/User/Preferences.sublime-settings",
		"/home/igor/.config/sublime-text-3/Packages/Default/Preferences.sublime-settings",
		"/home/igor/.config/sublime-text-3/Packages/User/C++.sublime-settings",
		"/home/igor/.config/sublime-text-3/Packages/SublimeCodeIntel/SublimeCodeIntel.sublime-settings",
		"/home/igor/.codeintel/codeintel.log",
		"/etc/apt/sources.list",
		"/home/igor/Work/HiWi/bogoslai-normals-svm/traverse/app/CMakeLists.txt",
		"/home/igor/Work/Thesis/MiscCode/learcode/lear/cvision/dhistogram.h",
		"/home/igor/Work/Thesis/MiscCode/learcode/lear/blitz/tvmio.h",
		"/home/igor/Work/Thesis/MiscCode/learcode/lear/cvision/histogram.h",
		"/home/igor/Work/Thesis/MiscCode/learcode/lear/blitz/blitzio.h",
		"/home/igor/ExternalLibs/blitz-0.9_CorrectedbyOPForICCBUG-ClangWarn/Makefile",
		"/home/igor/ExternalLibs/blitz-0.10/INSTALL",
		"/home/igor/Work/Thesis/MiscCode/learcode/buildtest.sh",
		"/home/igor/Work/Thesis/MiscCode/HOGclassifier/source/logger.h",
		"/home/igor/Work/HiWi/bogoslai-normals-svm/normals.sublime-project",
		"/home/igor/Work/HiWi/bogoslai-normals-svm/build/cmake_install.cmake",
		"/home/igor/Work/HiWi/bogoslai-normals-svm/CMakeLists.txt",
		"/home/igor/Work/Thesis/MiscCode/trainHOG/svmlight/svm_learn.h",
		"/home/igor/Work/Thesis/CarData/TrainingData/neg/imageMagickTest1/delete.sh",
		"/home/igor/Work/Thesis/CarData/TrainingData/neg/imageMagickTest1/test.sh",
		"/home/igor/Work/Thesis/MiscCode/imageclipper/src/Makefile",
		"/home/igor/Work/Thesis/OSMViewer/map_test.osm",
		"/home/igor/Work/Thesis/MiscCode/trainHOG/Readme.md",
		"/home/igor/ExternalLibs/boost_1_54_0/INSTALL",
		"/home/igor/.bashrc"
	],
	"find":
	{
		"height": 35.0
	},
	"find_in_files":
	{
		"height": 93.0,
		"where_history":
		[
			""
		]
	},
	"find_state":
	{
		"case_sensitive": false,
		"find_history":
		[
			"setTestHogFromHyperplane",
			"str",
			"unordered_map",
			"std::multimap",
			"squarePosDirs",
			"degree_0",
			"sampleShape",
			"Train",
			"Camera",
			"Image",
			"[i]",
			"temp_result_writer",
			"SVR_Q",
			"svm_predict_values",
			"this->getModel()",
			"singleDetectorVector",
			"TODO",
			"i",
			"Kernel",
			"SVR_Q",
			"solve_epsilon_svr",
			"svm_train_one",
			"svm_train",
			"setProblemTrain",
			"kernel_function",
			"Solve",
			"svm_node",
			"dot",
			"kernel_function",
			"SVR_Q",
			"Solve",
			"solve_epsilon_svr",
			"svm_train_one",
			"svm_train",
			"setProblemTrain",
			"Point",
			"_trainHog",
			"Rect",
			"_hog",
			"imageFilename",
			"Mat",
			"Size",
			"TRA",
			"pos_left",
			"HistType",
			"histogram_",
			"images",
			"detectTest",
			"imread",
			"showDetections",
			"hog",
			"patches",
			"Patch",
			"storeCursor",
			"traversability_pwn",
			"svm_learn_regression",
			"train",
			"optimi",
			"optimiz",
			"trainingPadding",
			"way"
		],
		"highlight": true,
		"in_selection": false,
		"preserve_case": false,
		"regex": false,
		"replace_history":
		[
			"std::multimap",
			"cv::Size",
			"hogs",
			"vector<float> ",
			"hog_classifier"
		],
		"reverse": false,
		"show_context": true,
		"use_buffer2": true,
		"whole_word": false,
		"wrap": true
	},
	"groups":
	[
		{
			"selected": 9,
			"sheets":
			[
				{
					"buffer": 0,
					"file": "main.cpp",
					"semi_transient": false,
					"settings":
					{
						"buffer_size": 2788,
						"regions":
						{
						},
						"selection":
						[
							[
								799,
								799
							]
						],
						"settings":
						{
							"syntax": "Packages/C++/C++.tmLanguage",
							"translate_tabs_to_spaces": false
						},
						"translation.x": 0.0,
						"translation.y": 612.0,
						"zoom_level": 1.0
					},
					"type": "text"
				},
				{
					"buffer": 1,
					"file": "directory_parser.cpp",
					"semi_transient": false,
					"settings":
					{
						"buffer_size": 1609,
						"regions":
						{
						},
						"selection":
						[
							[
								731,
								731
							]
						],
						"settings":
						{
							"syntax": "Packages/C++/C++.tmLanguage",
							"tab_size": 4,
							"translate_tabs_to_spaces": true
						},
						"translation.x": 0.0,
						"translation.y": 0.0,
						"zoom_level": 1.0
					},
					"type": "text"
				},
				{
					"buffer": 2,
					"file": "svm.cpp",
					"semi_transient": false,
					"settings":
					{
						"buffer_size": 64707,
						"regions":
						{
						},
						"selection":
						[
							[
								0,
								0
							]
						],
						"settings":
						{
							"syntax": "Packages/C++/C++.tmLanguage",
							"translate_tabs_to_spaces": false
						},
						"translation.x": 0.0,
						"translation.y": 0.0,
						"zoom_level": 1.0
					},
					"type": "text"
				},
				{
					"buffer": 3,
					"file": "svm_binder.cpp",
					"semi_transient": false,
					"settings":
					{
						"buffer_size": 10572,
						"regions":
						{
						},
						"selection":
						[
							[
								4174,
								4174
							]
						],
						"settings":
						{
							"syntax": "Packages/C++/C++.tmLanguage",
							"translate_tabs_to_spaces": false
						},
						"translation.x": 0.0,
						"translation.y": 2053.0,
						"zoom_level": 1.0
					},
					"type": "text"
				},
				{
					"buffer": 4,
					"file": "svm_binder.h",
					"semi_transient": false,
					"settings":
					{
						"buffer_size": 1198,
						"regions":
						{
						},
						"selection":
						[
							[
								834,
								834
							]
						],
						"settings":
						{
							"syntax": "Packages/C++/C++.tmLanguage",
							"translate_tabs_to_spaces": false
						},
						"translation.x": 0.0,
						"translation.y": 0.0,
						"zoom_level": 1.0
					},
					"type": "text"
				},
				{
					"buffer": 5,
					"file": "car_detector.h",
					"semi_transient": false,
					"settings":
					{
						"buffer_size": 907,
						"regions":
						{
						},
						"selection":
						[
							[
								575,
								575
							]
						],
						"settings":
						{
							"syntax": "Packages/C++/C++.tmLanguage",
							"tab_size": 2,
							"translate_tabs_to_spaces": true
						},
						"translation.x": 0.0,
						"translation.y": 0.0,
						"zoom_level": 1.0
					},
					"type": "text"
				},
				{
					"buffer": 6,
					"file": "car_detector.cpp",
					"semi_transient": false,
					"settings":
					{
						"buffer_size": 1622,
						"regions":
						{
						},
						"selection":
						[
							[
								1482,
								1482
							]
						],
						"settings":
						{
							"syntax": "Packages/C++/C++.tmLanguage",
							"tab_size": 2,
							"translate_tabs_to_spaces": true
						},
						"translation.x": 0.0,
						"translation.y": 0.0,
						"zoom_level": 1.0
					},
					"type": "text"
				},
				{
					"buffer": 7,
					"file": "temp_result_writer.cpp",
					"semi_transient": false,
					"settings":
					{
						"buffer_size": 1295,
						"regions":
						{
						},
						"selection":
						[
							[
								1115,
								1115
							]
						],
						"settings":
						{
							"syntax": "Packages/C++/C++.tmLanguage",
							"tab_size": 2,
							"translate_tabs_to_spaces": true
						},
						"translation.x": 0.0,
						"translation.y": 0.0,
						"zoom_level": 1.0
					},
					"type": "text"
				},
				{
					"buffer": 8,
					"file": "temp_result_writer.h",
					"semi_transient": false,
					"settings":
					{
						"buffer_size": 510,
						"regions":
						{
						},
						"selection":
						[
							[
								192,
								192
							]
						],
						"settings":
						{
							"syntax": "Packages/C++/C++.tmLanguage"
						},
						"translation.x": 0.0,
						"translation.y": 0.0,
						"zoom_level": 1.0
					},
					"type": "text"
				},
				{
					"buffer": 9,
					"file": "feature_detector.cpp",
					"semi_transient": false,
					"settings":
					{
						"buffer_size": 3884,
						"regions":
						{
						},
						"selection":
						[
							[
								3194,
								3194
							]
						],
						"settings":
						{
							"syntax": "Packages/C++/C++.tmLanguage",
							"tab_size": 2,
							"translate_tabs_to_spaces": true
						},
						"translation.x": 0.0,
						"translation.y": 965.0,
						"zoom_level": 1.0
					},
					"type": "text"
				},
				{
					"buffer": 10,
					"file": "/home/igor/ExternalLibs/opencv-2.4.6.1/modules/gpu/src/cuda/hog.cu",
					"semi_transient": false,
					"settings":
					{
						"buffer_size": 36248,
						"regions":
						{
						},
						"selection":
						[
							[
								21301,
								21301
							]
						],
						"settings":
						{
							"syntax": "Packages/C++/C++.tmLanguage",
							"tab_size": 4,
							"translate_tabs_to_spaces": true
						},
						"translation.x": 0.0,
						"translation.y": 7286.0,
						"zoom_level": 1.0
					},
					"type": "text"
				},
				{
					"buffer": 11,
					"file": "feature_detector.h",
					"semi_transient": false,
					"settings":
					{
						"buffer_size": 1398,
						"regions":
						{
						},
						"selection":
						[
							[
								361,
								361
							]
						],
						"settings":
						{
							"syntax": "Packages/C++/C++.tmLanguage",
							"translate_tabs_to_spaces": false
						},
						"translation.x": 0.0,
						"translation.y": 0.0,
						"zoom_level": 1.0
					},
					"type": "text"
				},
				{
					"buffer": 12,
					"semi_transient": false,
					"settings":
					{
						"buffer_size": 1160,
						"regions":
						{
							"match":
							{
								"flags": 112,
								"regions":
								[
									[
										276,
										300
									],
									[
										544,
										568
									],
									[
										894,
										918
									]
								],
								"scope": ""
							}
						},
						"selection":
						[
							[
								296,
								296
							]
						],
						"settings":
						{
							"detect_indentation": false,
							"line_numbers": false,
							"output_tag": 1,
							"result_base_dir": "",
							"result_file_regex": "^([A-Za-z\\\\/<].*):$",
							"result_line_regex": "^ +([0-9]+):",
							"scroll_past_end": true,
							"syntax": "Packages/Default/Find Results.hidden-tmLanguage",
							"translate_tabs_to_spaces": false
						},
						"translation.x": 0.0,
						"translation.y": 0.0,
						"zoom_level": 1.0
					},
					"type": "text"
				},
				{
					"buffer": 13,
					"file": "logger.cpp",
					"semi_transient": false,
					"settings":
					{
						"buffer_size": 2036,
						"regions":
						{
						},
						"selection":
						[
							[
								1704,
								1704
							]
						],
						"settings":
						{
							"syntax": "Packages/C++/C++.tmLanguage",
							"translate_tabs_to_spaces": false
						},
						"translation.x": 0.0,
						"translation.y": 489.0,
						"zoom_level": 1.0
					},
					"type": "text"
				},
				{
					"buffer": 14,
					"file": "logger.h",
					"semi_transient": false,
					"settings":
					{
						"buffer_size": 1185,
						"regions":
						{
						},
						"selection":
						[
							[
								717,
								717
							]
						],
						"settings":
						{
							"syntax": "Packages/C++/C++.tmLanguage",
							"translate_tabs_to_spaces": false
						},
						"translation.x": 0.0,
						"translation.y": 0.0,
						"zoom_level": 1.0
					},
					"type": "text"
				}
			]
		}
	],
	"incremental_find":
	{
		"height": 25.0
	},
	"input":
	{
		"height": 33.0
	},
	"layout":
	{
		"cells":
		[
			[
				0,
				0,
				1,
				1
			]
		],
		"cols":
		[
			0.0,
			1.0
		],
		"rows":
		[
			0.0,
			1.0
		]
	},
	"menu_visible": true,
	"output.exec":
	{
		"height": 112.0
	},
	"output.git-commit":
	{
		"height": 112.0
	},
	"output.git-push":
	{
		"height": 112.0
	},
	"project": "HOGclassifier.sublime-project",
	"replace":
	{
		"height": 46.0
	},
	"save_all_on_build": true,
	"select_file":
	{
		"height": 0.0,
		"selected_items":
		[
		],
		"width": 0.0
	},
	"select_project":
	{
		"height": 0.0,
		"selected_items":
		[
		],
		"width": 0.0
	},
	"select_symbol":
	{
		"height": 0.0,
		"selected_items":
		[
		],
		"width": 0.0
	},
	"settings":
	{
	},
	"show_minimap": true,
	"show_open_files": false,
	"show_tabs": true,
	"side_bar_visible": true,
	"side_bar_width": 233.0,
	"status_bar_visible": true,
	"template_settings":
	{
	}
}
